
\data\
ngram 1=5
ngram 2=3
ngram 3=2

\1-grams:
-99	</s>
-0.60206	a	0
-0.60206	b	0
-0.60206	x	0
-0.60206	y	0

\2-grams:
-0.60206	x y	-0.4074419
-0.60206	y a
-0.60206	y b

\3-grams:
-2	x y a
-0.1	x y b

\end\
